digraph Tree {
node [shape=box, style="filled, rounded", color="black", fontname="helvetica"] ;
edge [fontname="helvetica"] ;
0 [label="age <= 19.5\ngini = 0.749\nsamples = 23\nvalue = [9, 5, 3, 3, 3]\nclass = 💀", fillcolor="#f9e3d3"] ;
1 [label="gini = 0.0\nsamples = 8\nvalue = [8, 0, 0, 0, 0]\nclass = 💀", fillcolor="#e58139"] ;
0 -> 1 [labeldistance=2.5, labelangle=45, headlabel="True"] ;
2 [label="gender <= 0.5\ngini = 0.764\nsamples = 15\nvalue = [1, 5, 3, 3, 3]\nclass = 😂", fillcolor="#e9fbde"] ;
0 -> 2 [labeldistance=2.5, labelangle=-45, headlabel="False"] ;
3 [label="age <= 29.0\ngini = 0.278\nsamples = 6\nvalue = [0, 5, 1, 0, 0]\nclass = 😂", fillcolor="#95ea61"] ;
2 -> 3 ;
4 [label="gini = 0.0\nsamples = 5\nvalue = [0, 5, 0, 0, 0]\nclass = 😂", fillcolor="#7be539"] ;
3 -> 4 ;
5 [label="gini = 0.0\nsamples = 1\nvalue = [0, 0, 1, 0, 0]\nclass = 😎", fillcolor="#39e5c5"] ;
3 -> 5 ;
6 [label="age <= 29.5\ngini = 0.716\nsamples = 9\nvalue = [1, 0, 2, 3, 3]\nclass = 🙂", fillcolor="#ffffff"] ;
2 -> 6 ;
7 [label="age <= 21.5\ngini = 0.375\nsamples = 4\nvalue = [1, 0, 0, 0, 3]\nclass = 🥰", fillcolor="#ee7bd5"] ;
6 -> 7 ;
8 [label="gini = 0.0\nsamples = 1\nvalue = [1, 0, 0, 0, 0]\nclass = 💀", fillcolor="#e58139"] ;
7 -> 8 ;
9 [label="gini = 0.0\nsamples = 3\nvalue = [0, 0, 0, 0, 3]\nclass = 🥰", fillcolor="#e539c0"] ;
7 -> 9 ;
10 [label="age <= 30.5\ngini = 0.48\nsamples = 5\nvalue = [0, 0, 2, 3, 0]\nclass = 🙂", fillcolor="#bebdf6"] ;
6 -> 10 ;
11 [label="gini = 0.0\nsamples = 2\nvalue = [0, 0, 0, 2, 0]\nclass = 🙂", fillcolor="#3c39e5"] ;
10 -> 11 ;
12 [label="age <= 32.5\ngini = 0.444\nsamples = 3\nvalue = [0, 0, 2, 1, 0]\nclass = 😎", fillcolor="#9cf2e2"] ;
10 -> 12 ;
13 [label="gini = 0.0\nsamples = 1\nvalue = [0, 0, 1, 0, 0]\nclass = 😎", fillcolor="#39e5c5"] ;
12 -> 13 ;
14 [label="age <= 35.5\ngini = 0.5\nsamples = 2\nvalue = [0, 0, 1, 1, 0]\nclass = 😎", fillcolor="#ffffff"] ;
12 -> 14 ;
15 [label="gini = 0.0\nsamples = 1\nvalue = [0, 0, 0, 1, 0]\nclass = 🙂", fillcolor="#3c39e5"] ;
14 -> 15 ;
16 [label="gini = 0.0\nsamples = 1\nvalue = [0, 0, 1, 0, 0]\nclass = 😎", fillcolor="#39e5c5"] ;
14 -> 16 ;
}